// ==========================================
// Auto-generated by BLE FL loop
// Name: global_fedavg_round10
// Generated at: 2025-12-19 02:01:44.948246
// ==========================================

#pragma once

#define WEIGHTS_CNT 2994

static const float model_weights[WEIGHTS_CNT] = {
    0.38000205f,     0.01083679f,     0.18298107f,     0.10956983f,     -0.24314237f,     -0.48453575f,
    -0.58523571f,     0.25252387f,     -0.31974593f,     0.68770379f,     -0.86244392f,     -0.18018621f,
    0.75998813f,     -0.36103940f,     0.96113634f,     -0.82999045f,     0.81525791f,     -0.79498112f,
    0.84395552f,     0.01510243f,     0.74457854f,     -0.33348051f,     0.38481891f,     0.11389241f,
    -0.27616960f,     -0.93601233f,     0.71702218f,     -0.80203098f,     0.75413507f,     -0.10148218f,
    -0.13561480f,     0.21253583f,     0.85567528f,     0.32857135f,     -0.20926929f,     -0.12306208f,
    0.30425015f,     0.85772711f,     0.89828676f,     -0.38532850f,     0.19296588f,     0.56615239f,
    -0.32393923f,     0.61050564f,     0.88439327f,     -0.86705333f,     0.71417361f,     0.95443666f,
    0.77929240f,     0.09055125f,     0.72874349f,     -0.08445464f,     0.60043883f,     0.74741113f,
    0.64363682f,     -0.62854755f,     -0.82746994f,     0.27631158f,     -0.53234404f,     -0.07455655f,
    -0.98516023f,     0.27002108f,     -0.15749790f,     0.90731663f,     -0.57975906f,     0.94150108f,
    -0.47749490f,     0.71412861f,     0.16266543f,     0.41463661f,     -0.42804956f,     -0.36359245f,
    0.28790334f,     0.71703666f,     0.33778000f,     -1.00000000f,     -0.88821012f,     0.55490530f,
    0.18938516f,     -0.79583675f,     -0.40089196f,     0.90143865f,     0.33144027f,     0.89544845f,
    0.75887811f,     0.40173295f,     -0.24802546f,     0.22696418f,     0.72628123f,     -0.72765738f,
    -0.12062959f,     -0.45085612f,     -0.62638056f,     0.01232872f,     0.14102040f,     0.34565619f,
    0.24725345f,     -0.87740380f,     0.10091265f,     0.12790802f,     0.07316247f,     -0.79153270f,
    0.19906580f,     -0.44735229f,     -0.31528586f,     0.48057845f,     0.92768359f,     -0.37705463f,
    -0.24722625f,     0.11934409f,     -0.05472311f,     0.94273967f,     0.26826096f,     -0.29110467f,
    -0.25399834f,     -0.32003802f,     -0.99464637f,     0.46819365f,     0.18091518f,     0.19954206f,
    0.75421143f,     -0.38610086f,     -0.97354120f,     0.99798882f,     0.06918345f,     0.66117376f,
    0.85744071f,     -0.99407220f,     -0.09820449f,     0.45279908f,     -0.39095017f,     0.87311649f,
    -0.77516150f,     -0.34872162f,     -0.75677657f,     0.83370483f,     0.76185524f,     0.79638594f,
    -0.49434912f,     0.05756390f,     0.91789156f,     -0.51395684f,     -0.18675610f,     0.92908502f,
    0.83015788f,     0.42067680f,     -0.80192894f,     0.38277441f,     0.72525942f,     -0.50271219f,
    -0.45672938f,     -0.11370061f,     -0.79782921f,     -0.14914753f,     0.79918361f,     0.86505085f,
    -0.77916157f,     0.82825315f,     -0.23146546f,     0.58359772f,     -0.81671929f,     -0.34235498f,
    -0.99070132f,     0.84043479f,     0.22856283f,     -0.58767796f,     -0.78391278f,     -0.46121863f,
    -0.71752483f,     0.04043446f,     0.18273324f,     -0.56051022f,     0.25094491f,     0.96955824f,
    0.07301765f,     -0.68457431f,     0.64128947f,     0.62951219f,     -0.40904301f,     0.03778802f,
    -0.93662965f,     -0.28101519f,     -0.38580981f,     -0.94880533f,     0.47208858f,     0.82270539f,
    0.81448048f,     -0.48480234f,     -0.04661499f,     -0.80530655f,     -0.45318651f,     0.55999023f,
    0.69256335f,     -0.68954444f,     0.10426389f,     0.66055107f,     -0.71850991f,     0.85130048f,
    -0.45490250f,     0.10134480f,     -0.03037437f,     0.59879106f,     -0.99643892f,     0.86250085f,
    -0.90825659f,     -0.79487056f,     0.49063602f,     -0.30427343f,     0.46697059f,     0.99789459f,
    -0.33078897f,     -0.67503512f,     0.96502960f,     0.28291619f,     -0.73142451f,     0.12645957f,
    -0.62639469f,     -0.84472698f,     0.19910729f,     0.86467892f,     -0.15688795f,     -0.67666703f,
    -0.12930545f,     0.08389326f,     0.11612231f,     0.92819780f,     -0.06567445f,     0.93791062f,
    -0.39747733f,     0.10167021f,     -0.80469453f,     -0.87454391f,     -0.25318721f,     -0.99992627f,
    -0.52519912f,     0.03826369f,     -0.35640484f,     0.88546735f,     -0.43453658f,     -0.57260245f,
    0.14258939f,     -0.48413187f,     0.76889175f,     -0.98673910f,     -0.23676682f,     -0.36544275f,
    0.13788316f,     -0.41175523f,     -0.10827525f,     0.02250414f,     -0.53274721f,     0.98741287f,
    0.03165926f,     -0.87891001f,     0.03074864f,     0.06245976f,     -0.92444497f,     -0.51780456f,
    0.93050259f,     -0.36439452f,     -0.23813906f,     0.32178521f,     0.79128134f,     -0.20053281f,
    -0.30963436f,     -0.20026983f,     -0.00121257f,     0.33567345f,     -0.36121091f,     -0.50851965f,
    0.21950647f,     0.01140103f,     0.13883513f,     0.21454565f,     0.19781877f,     0.98341119f,
    -0.73126525f,     0.07449063f,     -0.94938439f,     -0.16732301f,     -0.50530171f,     -0.63542587f,
    -0.83615953f,     0.91757131f,     0.02248802f,     0.84127730f,     0.27113748f,     0.01020099f,
    0.74608690f,     0.34197176f,     0.96554083f,     -0.84206557f,     -0.42925227f,     -0.43473569f,
    -0.00324429f,     -0.93915468f,     0.47056925f,     0.28031403f,     -0.32932597f,     -0.62439293f,
    0.41329396f,     0.74860346f,     -0.45100963f,     -0.80977249f,     -0.52515543f,     -0.33581692f,
    -0.13665967f,     0.53317207f,     0.11326167f,     -0.76856530f,     0.08251963f,     0.34609368f,
    0.18682322f,     0.37447557f,     0.89397895f,     0.73290515f,     0.34266949f,     0.07432041f,
    0.24206245f,     -0.64278567f,     0.30326888f,     -0.83340150f,     -0.22964159f,     0.39675248f,
    0.74048388f,     -0.84443802f,     -0.57862782f,     0.67322630f,     -0.71102196f,     -0.59696853f,
    0.59666407f,     0.93545502f,     -0.78013277f,     0.84898061f,     -0.85512131f,     -0.45043367f,
    0.02867439f,     -0.16826825f,     -0.16064340f,     0.00747050f,     0.38890347f,     0.36331293f,
    -0.69576937f,     0.29545075f,     -0.50869519f,     -0.81357539f,     0.80823177f,     -0.78190380f,
    0.92066717f,     0.23392828f,     0.57576865f,     -0.42987013f,     0.61250651f,     0.25401762f,
    0.00719924f,     0.43539044f,     -0.43724114f,     -0.61668396f,     -0.66435057f,     -0.09585617f,
    -0.95020598f,     0.31692386f,     0.09010396f,     0.88263822f,     -0.97326434f,     -0.71165287f,
    0.87573934f,     0.02778919f,     0.39997667f,     0.61888289f,     -0.86144108f,     0.63575405f,
    -0.58029920f,     0.08423355f,     -0.92418104f,     -0.64486748f,     0.02880151f,     0.32049692f,
    -0.43740377f,     0.71822935f,     0.19876042f,     0.60435992f,     0.73536503f,     -0.40839463f,
    -0.56846929f,     -0.64510202f,     0.61506552f,     -0.67648518f,     0.40631038f,     -0.22136164f,
    -0.01303099f,     -0.48077673f,     0.73366314f,     -0.89685428f,     0.80143756f,     0.32116282f,
    0.96697783f,     -0.52494764f,     0.91307670f,     0.20781152f,     -0.91477734f,     -0.35228756f,
    0.03006475f,     -0.20132062f,     -0.20556676f,     0.29884422f,     -0.00058524f,     0.31212577f,
    -0.66225970f,     -0.44100061f,     0.22130051f,     0.23960917f,     0.66672361f,     -0.92697603f,
    0.92244172f,     0.75654125f,     -0.24860933f,     0.95368129f,     0.86721712f,     0.36126909f,
    -0.13210529f,     -0.85589051f,     0.32112259f,     0.33597454f,     -0.32728848f,     -0.69710743f,
    -0.96275920f,     -0.89989305f,     0.02170847f,     -0.92274362f,     0.16597089f,     -0.29188764f,
    0.83128935f,     0.60712802f,     -0.18315363f,     0.78611964f,     0.58257282f,     0.80911773f,
    -0.59719563f,     0.26886317f,     0.06295928f,     0.55117756f,     0.51974750f,     0.25698504f,
    0.67134511f,     -0.76875764f,     -0.03381773f,     0.49553287f,     -0.24298301f,     -0.48443350f,
    -0.09525345f,     -0.06058339f,     -0.04148095f,     -0.03216860f,     -0.57432622f,     0.12226523f,
    -0.34388706f,     0.14862438f,     -0.77722669f,     0.29777929f,     -0.56186742f,     0.38292897f,
    0.17858069f,     -0.53986084f,     -0.36130869f,     0.71941382f,     -0.93842953f,     -0.55168319f,
    -0.05166255f,     0.24222100f,     -0.51138735f,     0.04038497f,     0.61970216f,     -0.43604630f,
    0.35415092f,     0.52710140f,     0.02433817f,     -0.41539800f,     0.75338995f,     0.78841984f,
    -0.75612700f,     -0.80572498f,     0.33445433f,     -0.18026844f,     0.74885541f,     0.76948601f,
    0.02310604f,     -0.96493632f,     -0.47405365f,     0.28932732f,     -0.33829635f,     -0.73986799f,
    -0.19849403f,     0.75587147f,     -0.06921110f,     -0.72238326f,     0.99121004f,     0.63226265f,
    -0.17631616f,     0.98184675f,     0.17074978f,     -0.36828852f,     0.04540198f,     -0.38018763f,
    -0.07954144f,     0.41748250f,     -0.68636948f,     0.64082152f,     0.09916504f,     0.17291348f,
    -0.10443676f,     -0.51686388f,     -0.81732023f,     0.99153322f,     -0.19652855f,     -0.67027116f,
    0.44072431f,     0.36594179f,     -0.14655191f,     0.23131230f,     -0.84642762f,     0.17164686f,
    -0.55411792f,     -0.76314586f,     0.59800804f,     0.57957768f,     0.86898506f,     0.24963795f,
    0.49414104f,     0.28777882f,     -0.45519942f,     0.60766065f,     0.37057287f,     -0.83209985f,
    -0.12126110f,     -0.63653094f,     0.73261327f,     0.76540673f,     0.51974881f,     -0.11307252f,
    -0.22473545f,     0.95838833f,     0.96587682f,     0.24740858f,     0.47966984f,     0.35530174f,
    -0.71270853f,     -0.96433288f,     -0.12549403f,     -0.02345629f,     0.79778677f,     0.99227947f,
    -0.58277470f,     -0.89017820f,     0.56725532f,     -0.37658343f,     -0.47649890f,     0.88934135f,
    0.88070035f,     0.36375555f,     0.20884778f,     0.06602775f,     -0.20633744f,     0.33230340f,
    0.03796536f,     0.31681290f,     -0.11800216f,     -0.17566888f,     0.71533513f,     -0.49921232f,
    -0.01230612f,     -0.59746337f,     0.75614160f,     0.89924079f,     0.77564132f,     0.07319558f,
    0.83529335f,     -0.30012381f,     -0.84790432f,     -0.95239705f,     -0.97469592f,     0.52181530f,
    -0.89420426f,     0.75240326f,     0.03198647f,     -0.55155903f,     0.98323494f,     0.28218147f,
    -0.28888032f,     -0.79838514f,     0.81352788f,     0.66763872f,     -0.42321956f,     -0.25319591f,
    0.15616669f,     0.24427570f,     -0.25233436f,     0.69077706f,     0.92838961f,     -0.06017028f,
    0.16460609f,     -0.81022036f,     -0.82747120f,     0.03220642f,     -0.54425383f,     0.68451411f,
    -0.20346497f,     0.43190986f,     0.95976895f,     -0.67292404f,     -0.12352804f,     0.20011830f,
    -0.91634202f,     -0.59710318f,     -0.89787173f,     0.13312621f,     -0.18622588f,     0.09313890f,
    -0.41394970f,     0.38053519f,     -0.53139925f,     -0.14178638f,     -0.47451895f,     -0.31979939f,
    0.93158650f,     0.57938194f,     0.13016832f,     -0.20469457f,     0.24148463f,     -0.26274753f,
    -0.47257841f,     -0.44262549f,     0.97575969f,     -0.94378865f,     0.31314832f,     0.62860775f,
    -0.18446174f,     -0.33547625f,     0.97161841f,     0.12433823f,     -0.74065995f,     0.72383308f,
    -0.35815203f,     0.94218624f,     -0.74043471f,     -0.51736486f,     -0.74176133f,     -0.48150718f,
    0.18945186f,     -0.94456035f,     0.72583634f,     0.64884502f,     -0.96576327f,     0.51155758f,
    -0.65934014f,     -0.33455154f,     0.20340832f,     -0.00389415f,     -0.04100887f,     -0.84130597f,
    -0.64914536f,     -0.50387925f,     -0.54928464f,     0.05830922f,     0.31336558f,     -0.83866906f,
    -0.36419803f,     -0.25751060f,     0.08260315f,     0.56990534f,     -0.20513739f,     0.24418060f,
    -0.53743267f,     0.20758562f,     -0.17482281f,     0.85948503f,     0.49154848f,     0.92283696f,
    -0.47208065f,     -0.88021040f,     0.49562883f,     -0.47094715f,     0.13642420f,     -0.09389968f,
    0.27829966f,     -0.81426662f,     -0.82918441f,     -0.21534994f,     -0.47506824f,     0.25177398f,
    0.91179132f,     0.75470185f,     0.02515084f,     0.35924041f,     0.29382557f,     0.11835498f,
    0.95876777f,     -0.95593536f,     0.42826182f,     -0.63549846f,     0.74715173f,     0.17084810f,
    0.67564005f,     -0.61885887f,     0.51145464f,     0.38697475f,     -0.24836461f,     -0.65768719f,
    0.78546560f,     -0.03421144f,     0.35655540f,     -0.98154569f,     0.83919185f,     0.38601866f,
    -0.18797754f,     0.32422629f,     0.19475517f,     0.65675497f,     -0.54987788f,     0.04475520f,
    0.05421951f,     -0.48314029f,     0.59314293f,     -0.70619649f,     0.02447115f,     0.94966894f,
    0.20242363f,     0.41994065f,     0.28605062f,     0.20823343f,     0.44493085f,     0.59628850f,
    0.50570738f,     0.08668779f,     0.24134503f,     0.64851528f,     0.39767709f,     -0.09856198f,
    -0.11069610f,     -0.99789923f,     0.95073473f,     -0.31825888f,     0.78581989f,     0.20382525f,
    -0.97692090f,     -0.14780697f,     0.58219427f,     0.31290305f,     -0.55394715f,     0.70399374f,
    -0.58281976f,     0.36335406f,     0.43482995f,     0.69871044f,     -0.56156963f,     0.12248086f,
    0.62852770f,     -0.07845385f,     -0.24707223f,     -0.07411390f,     -0.70232290f,     -0.53573453f,
    0.05240785f,     -0.15689428f,     0.28425115f,     -0.48537192f,     -0.63196856f,     0.82722634f,
    -0.52035385f,     0.39938474f,     -0.00796513f,     0.02936392f,     -0.95538896f,     0.13765226f,
    -0.41274872f,     -0.35035378f,     0.27127346f,     0.49265781f,     -0.16824427f,     -0.52043200f,
    -0.85825115f,     0.09334390f,     -0.83499825f,     0.97279805f,     0.91919261f,     -0.48904267f,
    0.62585229f,     0.17181590f,     0.00627361f,     -0.33477181f,     -0.76062024f,     -0.03253757f,
    0.13151197f,     -0.74596399f,     0.97424263f,     0.33505967f,     0.02356538f,     0.70495218f,
    0.36567169f,     0.29327622f,     0.17161760f,     -0.28926599f,     -0.47908792f,     -0.22422458f,
    0.87812352f,     -0.62392980f,     -0.63012791f,     0.00058496f,     0.21746327f,     0.50873405f,
    0.01143899f,     0.69911957f,     0.44968486f,     0.96128184f,     0.26643759f,     -0.21154733f,
    -0.71332079f,     -0.94253755f,     -0.78994000f,     -0.35100958f,     0.68385601f,     -0.41414589f,
    0.38008806f,     0.14544806f,     0.93141079f,     -0.29144043f,     0.44283491f,     -0.50108802f,
    -0.90301609f,     0.56868029f,     -0.11863799f,     -0.65855867f,     0.75151533f,     -0.33431113f,
    -0.00106001f,     -0.59083718f,     0.48024699f,     0.02663950f,     -0.88127166f,     -0.53263253f,
    0.85228509f,     0.71937084f,     -0.71561801f,     0.90068799f,     0.55641675f,     0.57757169f,
    -0.33076707f,     -0.73160398f,     0.29327819f,     -0.55677587f,     -0.64332741f,     -0.04835849f,
    -0.15854423f,     -0.19287871f,     -0.28072479f,     -0.11635937f,     0.95402563f,     -0.69064534f,
    0.01564773f,     -0.08276568f,     0.89872700f,     -0.13777715f,     -0.27948409f,     -0.30380023f,
    -0.61038673f,     0.00771398f,     0.77781254f,     0.76989758f,     0.45985425f,     -0.69369900f,
    -0.36705363f,     0.05647478f,     -0.14546606f,     0.47077572f,     0.85272598f,     0.58968019f,
    0.91155475f,     -0.72703540f,     -0.05838789f,     -0.30578098f,     -0.50475013f,     -0.32924488f,
    -0.86887079f,     0.12486736f,     -0.03745672f,     0.83563942f,     0.76068592f,     -0.07774318f,
    0.26494566f,     0.64539218f,     0.26212659f,     0.32654396f,     -0.69103318f,     0.95217276f,
    0.92280781f,     0.15321817f,     0.35568720f,     0.34477860f,     -0.98016852f,     0.48259690f,
    -0.25203779f,     0.59785330f,     0.84362400f,     0.28769109f,     -0.03780593f,     -0.91075367f,
    0.20782085f,     0.74643612f,     -0.39135459f,     0.62683052f,     0.83601350f,     -0.56710881f,
    0.89460665f,     -0.67345852f,     0.36955810f,     0.52052027f,     -0.34795249f,     0.90482700f,
    -0.86816800f,     0.87949324f,     -0.64223933f,     0.87863600f,     -0.02306694f,     -0.67910773f,
    -0.59026134f,     0.22197334f,     -0.93365300f,     0.94707054f,     -0.28228471f,     0.07901938f,
    -0.47773701f,     -0.20430909f,     -0.75424659f,     0.73013598f,     0.00359033f,     0.08013783f,
    0.76961190f,     0.36325663f,     -0.25324354f,     -0.31210801f,     -0.82680452f,     0.81825757f,
    0.52531445f,     0.31830212f,     -0.04026596f,     -0.69171613f,     0.73356068f,     0.15826854f,
    0.23290546f,     0.40090722f,     -0.16073178f,     -0.24488333f,     0.51010412f,     -0.84772569f,
    -0.47567952f,     0.14222446f,     0.99378163f,     -0.25920659f,     0.91028047f,     0.59320605f,
    0.70067686f,     -0.24892811f,     0.33564064f,     0.55026460f,     0.44682452f,     0.51668888f,
    -0.74721217f,     0.51476997f,     0.56760240f,     -0.08805516f,     -0.10284286f,     -0.05651111f,
    -0.05359496f,     0.35274646f,     -0.24739541f,     -0.42363295f,     -0.82006609f,     0.08971769f,
    0.12502702f,     -0.37224841f,     -0.97657311f,     -0.04284506f,     -0.06298839f,     -0.10649033f,
    0.67119998f,     -0.70316297f,     0.36769906f,     -0.29507068f,     -0.92363912f,     0.87353331f,
    0.12274314f,     -0.39547458f,     -0.77053386f,     0.23141374f,     -0.04825952f,     0.09821771f,
    0.14508094f,     -0.95666486f,     0.07474990f,     -0.29134366f,     0.57374817f,     -0.83175522f,
    -0.90860415f,     0.16141035f,     -0.32885304f,     -0.81477952f,     0.52228415f,     -0.64593726f,
    0.41814268f,     0.76590055f,     0.21131945f,     0.21099782f,     0.99087882f,     -0.51386082f,
    -0.30806321f,     0.71766412f,     -0.84409153f,     -0.18951301f,     0.78765500f,     -0.69322532f,
    0.78809345f,     0.06948107f,     0.97779119f,     -0.36473009f,     0.03540741f,     0.68715501f,
    -0.83882624f,     -0.08476586f,     -0.11733343f,     0.62873012f,     0.67136395f,     0.06370839f,
    0.13061942f,     -0.92400581f,     -0.36939785f,     -0.47392538f,     -0.19530129f,     -0.43133211f,
    0.84698361f,     -0.22756536f,     0.93154448f,     0.36795083f,     -0.11462232f,     0.24411683f,
    0.76966202f,     -0.39670005f,     0.59169751f,     -0.67704016f,     0.40073249f,     0.21086527f,
    -0.75909144f,     0.12850372f,     0.69476700f,     0.12572989f,     -0.45832604f,     0.25727069f,
    -0.93867403f,     0.24880664f,     -0.49523956f,     0.93372381f,     -0.16471468f,     -0.68448806f,
    0.29483083f,     0.15367091f,     -0.81988776f,     -0.52855039f,     0.67805809f,     0.13265243f,
    0.50070041f,     -0.23367618f,     0.45151913f,     0.06009610f,     0.03526869f,     0.68231398f,
    -0.94048071f,     -0.42287722f,     0.82542163f,     0.57879162f,     -0.69755673f,     -0.70309174f,
    0.51771623f,     -0.52303189f,     -0.23808712f,     -0.53125983f,     0.75811052f,     0.78006339f,
    0.00551892f,     0.72594953f,     0.75559914f,     -0.20235018f,     0.56706715f,     0.18701482f,
    -0.62475938f,     -0.81671792f,     0.08744887f,     -0.24990687f,     -0.44742954f,     0.49072886f,
    -0.67920619f,     0.22922388f,     -0.87921768f,     0.07389597f,     -0.77818274f,     -0.39098474f,
    0.98982966f,     -0.94427258f,     0.26592734f,     0.33058858f,     0.83940172f,     -0.86188060f,
    0.94532013f,     0.90838581f,     0.36263657f,     0.42062247f,     0.25801671f,     -0.53621817f,
    0.81944412f,     0.54660785f,     -0.54177868f,     0.74580652f,     -0.79892099f,     -0.70957530f,
    0.18470958f,     0.44591823f,     0.59548759f,     -0.29176053f,     0.99156988f,     0.28187758f,
    -0.66017413f,     0.21579854f,     -0.16258617f,     0.20203255f,     -0.44572598f,     0.40692946f,
    0.57346052f,     -0.62696463f,     -0.20156464f,     0.41314808f,     0.11103576f,     -0.32013389f,
    0.18032344f,     0.11568810f,     0.82246095f,     -0.91277575f,     -0.68564451f,     -0.55177563f,
    0.49832967f,     -0.11376326f,     0.65610492f,     -0.73385513f,     -0.46994871f,     0.39747289f,
    -0.11975169f,     0.53414917f,     0.96624070f,     -0.88136977f,     0.62096119f,     -0.17211466f,
    -0.19620660f,     0.51727778f,     0.85176009f,     0.14271496f,     0.00940441f,     -0.35586190f,
    -0.45762485f,     0.01700157f,     -0.19877459f,     -0.34012121f,     -0.79423946f,     -0.03799888f,
    0.70524198f,     -0.80008006f,     -0.37596637f,     0.14897738f,     0.98489249f,     -0.60762948f,
    0.94267190f,     0.29449624f,     0.04565074f,     0.26653275f,     -0.67148703f,     -0.09842832f,
    -0.02579262f,     -0.95924759f,     0.23343928f,     -0.68002713f,     -0.65533751f,     0.77478182f,
    -0.42358753f,     0.30280825f,     0.45918420f,     -0.04910297f,     0.38646016f,     0.92692244f,
    -0.48761034f,     -0.18738720f,     0.62113792f,     0.70902991f,     0.85770196f,     -0.23027059f,
    0.29524845f,     -0.19779843f,     0.76359499f,     0.52502573f,     0.27414161f,     0.28465074f,
    0.79650176f,     -0.55582947f,     0.22247863f,     0.93111318f,     -0.66996330f,     -0.11388958f,
    -0.29628792f,     0.66758931f,     -0.60973328f,     0.98767471f,     0.02241411f,     0.32106534f,
    -0.29218054f,     -0.75571132f,     -0.37704581f,     -0.59884554f,     -0.85698348f,     0.87251419f,
    -0.72549164f,     -0.76849335f,     -0.87697566f,     -0.75572926f,     0.21557896f,     -0.75942767f,
    -0.10419685f,     -0.16416821f,     -0.31252593f,     -0.09250554f,     -0.85267413f,     -0.34529197f,
    0.92982846f,     -0.44850087f,     0.90992606f,     0.07367690f,     -0.06750005f,     0.97414303f,
    -0.48819214f,     0.95720965f,     -0.29081315f,     0.64229399f,     -0.06980169f,     -0.22613272f,
    0.86707401f,     -0.84436947f,     -0.02384990f,     0.33149797f,     0.51848501f,     -0.13501881f,
    0.83926749f,     -0.11155836f,     0.38841608f,     0.37539306f,     0.67642868f,     -0.73523712f,
    -0.16479269f,     0.39258912f,     0.29669186f,     -0.37511134f,     -0.55242920f,     0.68975300f,
    0.19030641f,     -0.46946305f,     -0.06001675f,     0.23871419f,     -0.16805230f,     0.71922314f,
    -0.64264625f,     0.53533751f,     0.73100632f,     -0.98099536f,     -0.96127164f,     -0.43306038f,
    -0.03567293f,     0.17211090f,     0.17853343f,     0.51223445f,     0.32149112f,     0.77497303f,
    0.70013124f,     -0.44871533f,     -0.56319892f,     -0.09697524f,     0.53867972f,     0.84957606f,
    0.40829098f,     0.16041707f,     -0.76077515f,     -0.49026644f,     -0.20862964f,     0.95738286f,
    -0.58480918f,     0.60396802f,     0.22874001f,     0.08552489f,     -0.12421069f,     -0.19841994f,
    -0.48230550f,     -0.62214899f,     -0.60784924f,     0.58340603f,     -0.21045949f,     0.79468542f,
    0.70008743f,     -0.40126672f,     -0.67864716f,     0.41785792f,     0.06726387f,     -0.76927471f,
    -0.45515123f,     -0.82690012f,     -0.07018753f,     0.07408839f,     -0.47409794f,     -0.43095773f,
    0.90840590f,     -0.35944331f,     0.51498008f,     0.18942277f,     -0.14237742f,     0.11682909f,
    -0.32910240f,     -0.18970701f,     -0.22406173f,     -0.00224506f,     0.32660866f,     0.18907094f,
    -0.85314858f,     0.00026544f,     -0.80533516f,     0.69652140f,     0.62931210f,     -0.49750194f,
    -0.73853064f,     -0.53107101f,     0.96212518f,     -0.65988004f,     -0.14675079f,     0.17687295f,
    0.66048115f,     0.72812063f,     -0.04473089f,     0.18554363f,     0.08700818f,     -0.79242909f,
    -0.47046065f,     0.24310899f,     0.90892190f,     -0.32873860f,     -0.53576851f,     -0.97451353f,
    -0.32763344f,     0.52678633f,     0.96691746f,     -0.93298370f,     -0.70131630f,     -0.34469968f,
    -0.73638260f,     -0.28728974f,     -0.02107528f,     -0.93900728f,     0.87931544f,     0.59071410f,
    0.98775572f,     0.65621221f,     0.47609764f,     0.56004441f,     0.92713720f,     0.52660561f,
    -0.28741595f,     0.11106993f,     -0.38158175f,     0.15492864f,     -0.58384073f,     0.41042730f,
    0.73576891f,     -0.25619391f,     0.82545525f,     -0.99047238f,     -0.43074495f,     0.54080772f,
    0.78818685f,     0.28856227f,     0.18083526f,     -0.83619404f,     0.87089998f,     -0.71834481f,
    -0.23136432f,     -0.76823944f,     -0.57340300f,     -0.52603710f,     0.96427447f,     -0.66754633f,
    -0.18933092f,     -0.14728156f,     0.92507017f,     -0.61345404f,     0.76777238f,     0.27592310f,
    0.12199884f,     -0.68623745f,     0.86652410f,     0.21417849f,     -0.50540483f,     0.16346449f,
    0.54962933f,     0.92694759f,     -0.36401382f,     -0.06771738f,     0.02689749f,     0.36337876f,
    0.80283535f,     -0.88442326f,     0.78978759f,     0.16131227f,     -0.01836137f,     -0.36569247f,
    0.54721618f,     0.72716886f,     -0.24848405f,     -0.97977746f,     0.31954488f,     -0.84458059f,
    0.68866390f,     -0.90606463f,     0.28711733f,     -0.30147764f,     -0.74623615f,     0.99829167f,
    0.83549041f,     0.45776662f,     -0.83025414f,     -0.83734679f,     0.00850310f,     -0.87684578f,
    -0.05933505f,     -0.83418232f,     -0.08635631f,     0.56538343f,     -0.58809733f,     0.56196326f,
    -0.39847115f,     0.67098355f,     0.62524283f,     -0.60485446f,     -0.20725960f,     -0.84856945f,
    0.94091851f,     -0.61338085f,     0.88188708f,     -0.60076618f,     0.92965156f,     0.23942718f,
    -0.01829857f,     -0.86395621f,     0.73193735f,     0.85521382f,     0.15431246f,     0.06103006f,
    -0.93685430f,     -0.09952005f,     -0.99535602f,     -0.06959061f,     0.77117419f,     0.88150412f,
    -0.83474725f,     0.59084940f,     0.61188525f,     -0.54478168f,     0.29098970f,     -0.30287057f,
    0.13381442f,     -0.81976199f,     -0.48023251f,     0.55321532f,     -0.37270990f,     -0.55227274f,
    -0.73550773f,     -0.52351028f,     -0.18480136f,     0.10905421f,     -0.40443629f,     0.55000216f,
    -0.14373265f,     0.27655160f,     -0.32272026f,     -0.48848000f,     -0.36786652f,     -0.32813376f,
    -0.54623783f,     -0.01216791f,     -0.77113777f,     0.19756381f,     -0.36754841f,     -0.70710248f,
    -0.10598858f,     -0.55994600f,     -0.06638581f,     -0.04219626f,     0.98473239f,     -0.43935448f,
    -0.94671041f,     0.93431354f,     -0.38811603f,     0.87671953f,     -0.36446893f,     0.86448163f,
    0.73820072f,     -0.91914088f,     0.34087095f,     0.95519036f,     0.62482065f,     -0.17540224f,
    -0.46398345f,     -0.41701242f,     -0.92026955f,     0.06543995f,     -0.20531626f,     0.42030922f,
    0.19603316f,     -0.31675273f,     0.50345826f,     0.36057624f,     0.47258601f,     -0.35586792f,
    0.84783942f,     0.89782810f,     -0.76481849f,     0.73159474f,     0.41826683f,     -0.38663960f,
    -0.84635627f,     -0.29938665f,     0.88750100f,     0.70423526f,     0.74395317f,     -0.50657821f,
    -0.98592448f,     -0.03245781f,     0.54411018f,     -0.71582621f,     -0.01973418f,     0.32343963f,
    0.98997205f,     -0.05098264f,     -0.14787035f,     -0.79493439f,     0.19496712f,     -0.97323483f,
    0.96726954f,     0.13193168f,     0.83201408f,     -0.73603296f,     -0.05640940f,     -0.36040938f,
    -0.08518324f,     -0.00196677f,     0.26575699f,     -0.01720286f,     0.68965232f,     0.51631653f,
    0.57822877f,     0.08865294f,     -0.97065622f,     -0.80183458f,     -0.00343021f,     0.52141285f,
    0.30221289f,     -0.94354135f,     0.43333834f,     -0.46833026f,     0.15758763f,     -0.64781779f,
    -0.82555795f,     0.85852957f,     -0.94071925f,     -0.61219293f,     -0.86188596f,     -0.93452412f,
    -0.51525867f,     0.74269944f,     0.00192281f,     -0.80617177f,     -0.62594551f,     0.86330414f,
    0.04211437f,     0.41210869f,     0.54422736f,     -0.57211488f,     0.26513109f,     -0.27171090f,
    -0.27267522f,     0.33816394f,     -0.17329597f,     0.57635617f,     0.21667720f,     0.21520108f,
    -0.78988218f,     -0.64429444f,     0.08655557f,     0.65799010f,     -0.20308477f,     -0.89099234f,
    0.86434382f,     -0.03390996f,     -0.65769881f,     0.65952873f,     0.57891828f,     0.05596788f,
    0.52337384f,     -0.84905732f,     0.41895285f,     -0.21523692f,     -0.72405529f,     0.27300227f,
    -0.84130430f,     0.79057932f,     0.81666023f,     -0.67487943f,     0.00745474f,     0.75203973f,
    0.86887777f,     -0.53793752f,     -0.75260848f,     -0.73399782f,     0.36556831f,     -0.67556483f,
    -0.79465878f,     -0.83964884f,     -0.73473316f,     -0.90809751f,     -0.58459491f,     0.95074064f,
    -0.79148269f,     0.27131951f,     0.50375950f,     0.38476381f,     0.23211835f,     0.89684510f,
    0.06812510f,     0.01322010f,     -0.92982250f,     0.43726718f,     0.38558149f,     0.85961723f,
    0.83695638f,     0.16848531f,     -0.09025750f,     0.88810992f,     0.29099289f,     -0.73878181f,
    0.60370427f,     0.90716588f,     0.21361497f,     0.63685322f,     0.64756066f,     -0.13151366f,
    0.87250543f,     0.50347173f,     0.36237830f,     -0.37928575f,     0.84191865f,     -0.19315054f,
    -0.53221238f,     0.85100573f,     0.96947521f,     0.63214904f,     0.77033806f,     -0.73394334f,
    -0.64299363f,     -0.19123818f,     -0.01496305f,     -0.28416100f,     -0.27199581f,     0.33697507f,
    -0.36762652f,     -0.31634215f,     0.51475203f,     0.81051403f,     0.27845013f,     0.21695809f,
    -0.53405571f,     0.39314649f,     -0.65099418f,     0.16570596f,     0.04593271f,     0.03921692f,
    0.51351017f,     -0.10937888f,     -0.20447588f,     -0.20050953f,     0.57075936f,     0.66385871f,
    0.76103050f,     0.66242141f,     -0.96662474f,     0.97965664f,     -0.22742526f,     -0.51707590f,
    -0.64634639f,     -0.48920327f,     -0.81242484f,     0.18759128f,     -0.81533700f,     -0.30510324f,
    -0.51984406f,     -0.18349801f,     0.50383353f,     0.74336296f,     0.92824847f,     -0.09785049f,
    0.67991275f,     0.56428134f,     -0.65353453f,     0.03011549f,     -0.54457265f,     0.24255802f,
    0.63130069f,     0.13197856f,     -0.49809355f,     -0.34140784f,     -0.35369530f,     0.13655140f,
    0.21385553f,     -0.14741048f,     0.07864317f,     -0.19750524f,     -0.22979575f,     -0.19575131f,
    -0.12277160f,     0.23228249f,     0.06483670f,     -0.10716419f,     0.02497341f,     -0.43706420f,
    0.88883305f,     0.27928871f,     0.20494321f,     -0.87884206f,     0.66355574f,     0.34443912f,
    -0.65510201f,     -0.88332957f,     0.35934037f,     0.76468521f,     -0.37183967f,     -0.05372709f,
    0.55102140f,     0.55242616f,     -0.08909154f,     0.26376048f,     -0.34171048f,     -0.70195723f,
    -0.67945707f,     -0.41428146f,     -0.43893352f,     -0.68892843f,     -0.36736229f,     -0.26808396f,
    -0.88726401f,     -0.62106967f,     -0.93729579f,     0.49843943f,     0.82810515f,     0.10964896f,
    -0.32328111f,     -0.74561155f,     0.80590087f,     -0.20948452f,     -0.83952898f,     -0.69684863f,
    -0.90260446f,     0.09890644f,     0.92415088f,     -0.73813558f,     -0.58512294f,     -0.48842600f,
    0.40838265f,     0.15907983f,     0.44674867f,     -0.49962190f,     -0.30904552f,     -0.11417733f,
    -0.42090389f,     -0.59043485f,     0.61017752f,     -0.33064103f,     -0.53465945f,     -0.32300314f,
    -0.07658339f,     -0.75469285f,     0.51590097f,     0.01244463f,     -0.33214638f,     0.81526268f,
    -0.35367945f,     -0.74093008f,     -0.24305797f,     0.93085015f,     -0.04404034f,     0.94478595f,
    -0.11122804f,     0.65030003f,     0.29845220f,     0.24535488f,     -0.04922924f,     -0.14063738f,
    0.79658419f,     0.51808763f,     -0.45130244f,     -0.09732349f,     0.23709059f,     0.80924052f,
    -0.90188253f,     0.36217415f,     -0.50493944f,     -0.09623276f,     -0.29089278f,     -0.80108589f,
    0.63879246f,     0.77057457f,     -0.96607727f,     -0.93660802f,     -0.23626861f,     -0.87189043f,
    -0.96250129f,     -0.42673659f,     0.38001540f,     0.61884081f,     0.63188630f,     -0.72151649f,
    0.17529328f,     0.00660014f,     -0.27824980f,     0.51539648f,     0.14030220f,     -0.05630069f,
    -0.76197231f,     -0.96734715f,     -0.90582067f,     -0.42919311f,     -0.92277396f,     -0.18133172f,
    -0.99846685f,     -0.49144134f,     0.48416382f,     0.76989764f,     0.52120268f,     0.25687230f,
    0.65072000f,     -0.27812681f,     0.62809128f,     -0.69278133f,     0.61862856f,     -0.07562754f,
    0.61415935f,     -0.98674464f,     -0.79264355f,     -0.72254521f,     -0.59019184f,     -0.02325180f,
    0.73072743f,     0.84416699f,     -0.80824292f,     -0.45343548f,     0.95812005f,     -0.05145704f,
    0.55039030f,     0.93185371f,     0.95500934f,     -0.81980777f,     0.21909194f,     0.20300370f,
    0.28111118f,     0.16410622f,     0.35457164f,     0.33093798f,     -0.58813840f,     0.30147293f,
    -0.01342062f,     0.50639933f,     -0.74772114f,     -0.94233179f,     -0.03323809f,     0.97689962f,
    -0.18465266f,     0.96772534f,     -0.90547550f,     -0.91080791f,     0.67109793f,     -0.39245355f,
    0.98258996f,     0.63021183f,     -0.85900736f,     -0.07793035f,     0.58074975f,     -0.53521347f,
    -0.83275890f,     0.93711191f,     -0.79904395f,     -0.32216105f,     0.70651168f,     -0.64447004f,
    0.87936443f,     -0.60219401f,     0.90106219f,     0.11378001f,     0.57235497f,     0.88268197f,
    0.30359238f,     0.59572941f,     -0.07505329f,     -0.13493112f,     -0.72207552f,     0.05126243f,
    0.83701003f,     0.70922273f,     0.25793606f,     0.83763599f,     -0.69469452f,     0.76637536f,
    -0.41514072f,     0.30876395f,     -0.72766376f,     -0.45471486f,     -0.89291990f,     0.12851469f,
    -0.17059307f,     0.24978805f,     -0.03752918f,     -0.03966745f,     -0.95965952f,     -0.59306800f,
    0.76818907f,     -0.68662703f,     -0.96110350f,     0.91524065f,     -0.89834720f,     -0.98871487f,
    -0.99544209f,     -0.92326820f,     0.78327012f,     -0.46109962f,     0.47544754f,     0.88967043f,
    -0.83122504f,     0.70466197f,     0.92915159f,     0.93938679f,     0.19217901f,     0.02312799f,
    0.63255632f,     0.88302851f,     -0.22376205f,     0.46892723f,     0.91686612f,     0.03612162f,
    0.24959594f,     -0.31932476f,     -0.84538388f,     -0.74852794f,     0.97337437f,     0.96784896f,
    0.59298748f,     -0.87044072f,     -0.04613927f,     0.67831808f,     0.34549922f,     -0.47928777f,
    -0.34723315f,     0.08615787f,     -0.03946277f,     0.93700844f,     0.69139379f,     -0.20790362f,
    0.11040802f,     -0.29977733f,     -0.17467752f,     -0.50436783f,     0.04219457f,     -0.81372726f,
    0.02135947f,     0.54179198f,     0.81249964f,     -0.84092218f,     0.43652907f,     -0.23523480f,
    -0.97766137f,     0.69705409f,     -0.97755253f,     -0.95157140f,     0.63842040f,     -0.94472980f,
    0.63284975f,     -0.20606327f,     -0.43807724f,     0.04172888f,     0.66609186f,     -0.04942362f,
    0.80519456f,     0.57606828f,     0.01930573f,     0.84780794f,     -0.76070344f,     -0.99564826f,
    0.20228195f,     0.51635921f,     0.27529585f,     0.80335104f,     -0.43595600f,     0.09689111f,
    -0.67540950f,     -0.74999523f,     -0.56775379f,     0.16386025f,     -0.66530418f,     0.03084711f,
    -0.61332619f,     -0.21221262f,     0.35774776f,     0.19052754f,     0.12384737f,     -0.87263602f,
    -0.33765104f,     0.85319233f,     -0.21805470f,     0.42141145f,     -0.62703776f,     0.41589168f,
    0.25538394f,     0.90285820f,     0.77316380f,     0.13799642f,     -0.18201178f,     -0.56199914f,
    -0.04674542f,     -0.80465674f,     -0.57824653f,     -0.51869994f,     -0.80613881f,     0.63240081f,
    -0.49313778f,     -0.35336104f,     0.90964204f,     0.83241963f,     -0.42356071f,     -0.29933068f,
    -0.78682345f,     -0.33444592f,     0.31911108f,     -0.41262233f,     -0.30785811f,     0.86522055f,
    0.27660480f,     -0.26527679f,     0.54017872f,     -0.98390627f,     -0.01813415f,     -0.58839661f,
    0.90536994f,     0.34621412f,     -0.11247021f,     0.26243168f,     -0.37528196f,     0.89209151f,
    0.36179373f,     0.41362748f,     -0.72372115f,     -0.91360408f,     -0.70726079f,     0.95817125f,
    0.25945058f,     0.97539806f,     -0.70118737f,     -0.34952918f,     -0.94447851f,     0.37997469f,
    0.60623944f,     0.07178460f,     0.19790012f,     0.88824403f,     0.42944223f,     -0.90388137f,
    0.95776683f,     -0.95021617f,     -0.00770424f,     -0.39957303f,     -0.33339769f,     -0.11993162f,
    -0.19061837f,     0.21911897f,     -0.24084479f,     -0.54166001f,     -0.30709457f,     0.41221014f,
    0.26263234f,     0.93452543f,     -0.22568159f,     -0.30695912f,     0.22691643f,     -0.78341538f,
    0.58552694f,     0.51306283f,     0.60145229f,     0.02056366f,     -0.81400955f,     -0.25293508f,
    0.75532335f,     -0.55528152f,     -0.81157649f,     0.10354599f,     -0.95814556f,     0.18738990f,
    0.36353791f,     -0.87030154f,     0.15279706f,     0.23871773f,     0.63312572f,     -0.19711134f,
    0.41724539f,     0.06847171f,     -0.70142633f,     0.96321785f,     -0.98533338f,     -0.06018863f,
    0.04569154f,     0.18456921f,     -0.08984625f,     -0.40315405f,     -0.58196813f,     -0.41077566f,
    0.57822168f,     -0.87621284f,     0.19856213f,     -0.96923935f,     -0.91619939f,     0.80768085f,
    0.12256979f,     -0.77761924f,     0.13804373f,     -0.14495939f,     0.44352698f,     -0.19564544f,
    0.48210219f,     -0.10101815f,     -0.58256620f,     -0.81890321f,     -0.37221017f,     -0.74199474f,
    -0.71548462f,     -0.59992629f,     0.45344472f,     -0.52033168f,     -0.92143261f,     0.02385034f,
    0.54560953f,     -0.00658658f,     -0.60476506f,     -0.33856317f,     0.43196195f,     -0.80697656f,
    -0.85785872f,     -0.07592115f,     0.46605039f,     -0.55020130f,     -0.05505657f,     -0.98535496f,
    0.16043597f,     0.43220863f,     0.71240705f,     -0.69055390f,     0.83684754f,     -0.51598632f,
    0.08245391f,     0.07346791f,     0.13603190f,     -0.89747709f,     -0.56091774f,     0.25608960f,
    -0.36953413f,     0.86920953f,     0.65065926f,     0.47110614f,     0.00316823f,     -0.62080431f,
    0.64362562f,     0.35419226f,     0.55208284f,     -0.93819869f,     -0.85402066f,     -0.76595634f,
    -0.28166896f,     -0.24853931f,     0.11748868f,     -0.08844677f,     -0.75184268f,     0.57117623f,
    0.44897377f,     0.01245186f,     0.68058449f,     0.40762910f,     0.42745847f,     0.96315581f,
    -0.14354654f,     0.39923045f,     -0.66354656f,     0.59263206f,     -0.44295347f,     0.69594145f,
    0.89274365f,     -0.47554448f,     0.71388829f,     -0.85816020f,     -0.61547452f,     -0.25143287f,
    -0.89257395f,     0.84362739f,     -0.42130941f,     -0.43903834f,     -0.91430104f,     -0.08213931f,
    -0.34338608f,     -0.98443460f,     -0.53929180f,     -0.52172846f,     0.78762561f,     -0.83982813f,
    0.64690405f,     0.83366293f,     -0.27365655f,     -0.98422354f,     0.90469223f,     -0.84989154f,
    0.68196088f,     -0.04815135f,     -0.67306536f,     0.67413676f,     -0.39928055f,     -0.11163646f,
    0.23689143f,     -0.44997555f,     0.05852234f,     0.58861244f,     -0.15641971f,     0.29488325f,
    -0.03701590f,     -0.51352477f,     0.73949045f,     -0.88798660f,     0.45018277f,     0.25976557f,
    0.94432026f,     -0.03865192f,     0.50330627f,     0.03973146f,     -0.06010479f,     0.88173085f,
    -0.27307218f,     0.92285973f,     -0.81114799f,     -0.41086292f,     0.47074279f,     -0.59520948f,
    0.65981573f,     -0.39185283f,     0.97804326f,     -0.24022838f,     0.88670337f,     0.13695154f,
    -0.46390912f,     0.74292725f,     -0.61520982f,     -0.42343009f,     -0.64873129f,     0.42285383f,
    -0.23040789f,     -0.42050707f,     0.41697040f,     -0.82621992f,     -0.87778759f,     -0.79063052f,
    0.45858443f,     0.37217253f,     0.41941321f,     0.80844980f,     0.72610575f,     -0.48168081f,
    -0.75901359f,     -0.82861018f,     0.95833266f,     0.99930716f,     0.43498453f,     -0.14487673f,
    0.01891936f,     -0.29300490f,     0.73124033f,     0.61848706f,     0.47515601f,     0.94688690f,
    -0.70708466f,     0.82936054f,     0.69754684f,     -0.54065001f,     -0.14347197f,     -0.02195030f,
    -0.74521136f,     0.27090231f,     -0.54000592f,     0.14591718f,     0.92580706f,     0.16804749f,
    0.48668924f,     -0.48471975f,     0.83605313f,     -0.44500074f,     0.98449105f,     -0.49300686f,
    0.85182160f,     0.77029586f,     0.60218620f,     -0.27105471f,     0.54499841f,     -0.52653855f,
    0.47577095f,     0.53799695f,     0.41541377f,     0.92553908f,     0.25506601f,     -0.37186235f,
    -0.02757759f,     -0.73518205f,     -0.78700197f,     0.94326425f,     0.58241057f,     -0.42434525f,
    -0.35041130f,     0.88016886f,     0.37902096f,     -0.40836698f,     -0.87725580f,     0.70884871f,
    0.48402938f,     -0.71114552f,     0.93350846f,     0.75927496f,     0.35902992f,     -0.25148588f,
    -0.88141567f,     0.45613664f,     0.06089892f,     -0.30124593f,     -0.60240263f,     -0.86845398f,
    0.03190637f,     -0.25392470f,     0.64575368f,     0.78210855f,     0.94742739f,     -0.11001263f,
    -0.95552987f,     0.98097724f,     -0.57026297f,     -0.01992363f,     0.00647744f,     0.49995294f,
    0.31539562f,     0.21334337f,     0.92342192f,     -0.01769992f,     -0.34043947f,     0.62057835f,
    0.57334518f,     -0.80353439f,     0.54827577f,     0.87525988f,     0.97576082f,     0.23322892f,
    0.23252597f,     -0.31662866f,     -0.93585330f,     0.35545969f,     0.94003427f,     -0.35668653f,
    0.54704082f,     -0.60818857f,     0.57514244f,     0.09958684f,     -0.60719121f,     -0.87185454f,
    -0.03050688f,     -0.19399016f,     -0.54967618f,     0.02597888f,     -0.20984672f,     0.50805503f,
    -0.33825496f,     0.03217724f,     0.01184396f,     0.33499950f,     0.54688519f,     0.79436678f,
    -0.26937488f,     0.32915103f,     0.43617535f,     -0.56046975f,     -0.22897601f,     -0.22344279f,
    0.76098448f,     0.81963718f,     -0.01051091f,     -0.41156730f,     0.42427328f,     -0.74553353f,
    0.83649212f,     -0.86538506f,     -0.06106436f,     -0.23756680f,     -0.64168453f,     -0.69005162f,
    0.71769863f,     -0.21485484f,     0.78683990f,     -0.82147646f,     -0.47519144f,     0.86270368f,
    -0.99717820f,     0.27521437f,     0.91138309f,     -0.06542855f,     0.11603144f,     0.70766169f,
    -0.44316283f,     -0.48592067f,     -0.91278589f,     0.12406097f,     -0.11576170f,     -0.61122632f,
    0.54490495f,     0.22614148f,     -0.15498343f,     -0.27949437f,     -0.01257074f,     0.20807527f,
    -0.92863017f,     -0.97403264f,     0.80780053f,     -0.25878802f,     -0.28640780f,     0.79314673f,
    -0.82772034f,     -0.50361687f,     -0.40991828f,     -0.48935011f,     -0.16715658f,     0.10028031f,
    -0.07109991f,     0.64974236f,     0.74705940f,     -0.87002462f,     -0.41961503f,     0.93239635f,
    0.41171721f,     0.03881034f,     -0.70482635f,     -0.81786472f,     0.03986704f,     0.75140232f,
    0.42247036f,     -0.20493020f,     0.94030941f,     -0.57512265f,     -0.85985208f,     0.81475240f,
    -0.92933130f,     -0.06997684f,     0.24658884f,     0.35645598f,     -0.48194358f,     0.38351303f,
    -0.71802998f,     -0.21275903f,     0.62648427f,     -0.52032745f,     -0.82856590f,     0.76369315f,
    0.18943515f,     0.53487056f,     -0.83420104f,     -0.43427172f,     0.79876232f,     0.99731487f,
    0.56787819f,     -0.09906350f,     0.55115223f,     -0.84969854f,     -0.27648360f,     0.28383192f,
    -0.65283310f,     -0.67725205f,     0.20288900f,     -0.31838498f,     -0.77785027f,     0.11931230f,
    0.56614470f,     -0.24726352f,     0.32198858f,     -0.19421759f,     -0.78729218f,     0.11503861f,
    0.12987390f,     -0.88030255f,     0.59564352f,     0.02922723f,     -0.42845982f,     -0.49673399f,
    0.64320898f,     0.13273278f,     0.46194631f,     0.49201778f,     -0.50126284f,     0.79598665f,
    0.30922633f,     -0.30346864f,     0.50866544f,     0.52554631f,     0.62411070f,     1.13459611f,
    -0.94401836f,     -0.51022261f,     0.11707090f,     -0.62505734f,     -0.59039462f,     0.74121183f,
    0.45211554f,     0.53187984f,     -0.19666632f,     0.00893249f,     0.86407065f,     -0.15711744f,
    0.67720413f,     0.05866110f,     -0.61455709f,     -0.22121041f,     -0.46350178f,     -0.07267196f,
    -0.36221516f,     -0.76549721f,     1.12982094f,     0.91698378f,     -0.31237775f,     -0.51324493f,
    0.64917904f,     0.54638767f,     0.29442009f,     -0.90781653f,     -0.04236070f,     -0.03970967f,
    0.64099759f,     0.63888448f,     0.13656744f,     -0.64903396f,     0.07173432f,     -0.56675351f,
    -0.09772240f,     0.82177430f,     -0.12563737f,     -0.74198860f,     0.39098057f,     0.97928977f,
    0.37921759f,     0.52839828f,     -0.38579878f,     -0.44160879f,     0.99478805f,     0.61751926f,
    0.88512903f,     -0.44193926f,     -0.63136578f,     0.51886725f,     0.36753073f,     -0.54998779f,
    0.79311389f,     -0.22514495f,     0.38570702f,     0.91877681f,     -0.51471466f,     -0.35566878f,
    0.87978375f,     -0.44575503f,     -0.89174223f,     0.37643635f,     -0.17608334f,     -0.28167072f,
    0.12884985f,     0.73467731f,     0.55184245f,     -0.15801758f,     0.72619402f,     -0.11775972f,
    0.59385550f,     0.47929916f,     -0.83902752f,     -0.24472135f,     0.19215199f,     0.80312705f,
    0.79956132f,     0.22972977f,     -0.52206045f,     0.52781200f,     -0.49275619f,     -0.44291037f,
    0.32751998f,     -0.36064017f,     0.73249400f,     -0.65130031f,     0.45069999f,     0.83074552f,
    0.72725284f,     -0.77141798f,     -0.06930098f,     -0.21563736f,     -0.25786352f,     -0.75180060f,
    -0.27384439f,     -0.91932976f,     0.01551266f,     0.86736250f,     1.07167232f,     0.28086480f,
    0.08101478f,     -0.53579831f,     -0.66767395f,     -0.52762562f,     1.07817578f,     -0.15293832f,
    -0.58235371f,     0.70322102f,     0.44687170f,     0.94671166f,     0.34892464f,     -0.24625152f,
    -0.86420327f,     0.22812918f,     0.97153157f,     -0.36906406f,     0.79010105f,     -0.24831873f,
    -0.13226260f,     -0.26175970f,     0.51363164f,     -0.55715793f,     0.49008349f,     -0.82356268f,
    -0.66008145f,     0.23030975f,     0.26648295f,     0.57290375f,     -0.45210397f,     -0.44593254f,
    -0.96056211f,     0.53601682f,     -0.20059566f,     -0.14467725f,     -0.33227405f,     0.42996064f,
    1.09342396f,     -0.92283624f,     0.12513839f,     0.21435304f,     0.33451512f,     0.76426810f,
    -0.60819745f,     -0.86665595f,     -0.15632913f,     -0.18444084f,     0.59886461f,     0.72645241f,
    0.87311012f,     0.48258311f,     -0.64725363f,     0.68043274f,     0.56642711f,     -0.17210072f,
    0.00661187f,     -0.76029342f,     0.88431180f,     0.17993575f,     -0.51617938f,     0.50037771f,
    -0.78086519f,     -0.45723182f,     -0.48205233f,     0.37079450f,     0.79690063f,     -0.55811059f,
    0.24002412f,     0.66087836f,     -0.07824576f,     0.39702716f,     0.84661889f,     0.16637777f,
    -0.68897241f,     -0.02987853f,     -0.44780213f,     0.95305151f,     -0.85673195f,     -0.51473010f,
    0.01993798f,     -0.15202929f,     0.37920171f,     -0.76240790f,     0.53255367f,     -0.12226002f,
    -0.06835274f,     0.35342801f,     -0.41167769f,     0.77286983f,     -0.91949916f,     0.81463182f,
    -0.13827373f,     0.18207340f,     0.42591035f,     0.47409347f,     0.99432874f,     -0.34552446f,
    -0.56449628f,     0.29188049f,     0.06691319f,     -0.97391284f,     -0.42774650f,     0.31285858f,
    -0.50194675f,     0.72544700f,     0.63519901f,     0.53951824f,     0.38896900f,     -0.94650525f,
    0.33052531f,     -0.57099962f,     -0.65439928f,     -0.27810165f,     0.35822114f,     -0.19897424f,
    -0.29673991f,     -0.30664060f,     -0.89917254f,     -0.89784998f,     -0.74267489f,     0.46484178f,
    -1.00534582f,     -0.30444175f,     0.53791034f,     -0.90857810f,     1.02975380f,     0.19910207f,
    -0.76816356f,     0.09479643f,     -0.70279473f,     0.90123612f,     -0.86851484f,     0.33417875f,
    0.77882975f,     0.44222689f,     -0.82727230f,     0.07416262f,     1.01049209f,     0.50875223f,
    -0.83026671f,     0.21906310f,     0.26338118f,     0.73086268f,     -0.69737369f,     -0.52222377f,
    -0.73411322f,     -0.03173069f,     0.74911755f,     -0.15682210f,     0.46599245f,     0.99302775f,
    0.96803546f,     -0.42322680f,     -0.09303230f,     -0.40443838f,     -0.01781489f,     0.64322293f,
    0.73031235f,     0.36556345f,     0.10084599f,     -0.74946475f,     0.70438778f,     -0.41789743f,
    -0.59530419f,     0.57400566f,     -0.77677816f,     0.80912125f,     0.14254156f,     0.75477278f,
    0.23552200f,     -0.76651961f,     -0.20996732f,     -0.73261660f,     -0.24844930f,     -0.31896794f,
    -1.00506437f,     -0.84912366f,     -0.64558715f,     -0.34437326f,     -0.77453148f,     -0.79406315f,
    0.51662070f,     0.57416236f,     -0.76082659f,     0.61391443f,     -0.71874022f,     -0.57033402f,
    0.84864080f,     0.89746803f,     0.50508195f,     -0.91169995f,     0.11516305f,     0.67228103f,
    0.13744590f,     -0.02503928f,     0.97111428f,     -0.72110605f,     -0.31030095f,     0.09921774f,
    -0.86420447f,     0.24770404f,     -0.77003467f,     0.39665097f,     -0.26956168f,     -0.98945010f,
    -0.57097298f,     0.41451865f,     -0.12364770f,     0.14200616f,     -0.33015779f,     0.00844577f,
    0.67133880f,     -0.67256343f,     0.83546519f,     0.43902233f,     1.02121139f,     -0.55949068f,
    0.90012008f,     0.63148475f,     1.15299702f,     0.33461460f,     0.53848553f,     0.20067649f,
    0.77411950f,     -0.24232835f,     -0.35734713f,     0.08486757f,     -0.68569088f,     -0.47485778f,
    0.20601305f,     -0.92490721f,     -0.82272536f,     -0.35842541f,     1.03157735f,     -0.68330866f,
    -0.56318849f,     0.96566236f,     0.37311658f,     -0.82796180f,     0.88173705f,     0.02008319f,
    0.40553740f,     -0.81556070f,     0.48929018f,     -0.45798972f,     -0.91694689f,     -0.38031226f,
    0.47425118f,     -0.15405986f,     -0.85995632f,     -0.15159313f,     0.34175658f,     0.47384173f,
    0.56626499f,     -0.99433446f,     0.13733281f,     1.00885653f,     -0.15963210f,     1.03836477f,
    -0.56867695f,     0.21107055f,     -0.57596600f,     0.04979772f,     0.14642134f,     -0.24122763f,
    -0.50656712f,     -0.34611842f,     -0.50057924f,     0.38312691f,     -0.89396882f,     -0.82485735f,
    0.59423590f,     -0.45218104f,     -0.92947620f,     0.50744224f,     -0.28135982f,     -0.50569695f,
    -0.70123553f,     0.35586262f,     0.51676226f,     0.18471058f,     -0.67190850f,     -0.64328837f,
    -0.20046628f,     0.44148722f,     -0.67064017f,     -0.03847412f,     -0.28594533f,     0.17321894f,
    -0.53221983f,     1.01354051f,     0.27501288f,     0.05141228f,     -0.67984700f,     -0.07774899f,
    0.11665317f,     -0.10566454f,     0.23525868f,     0.17483999f,     1.02582788f,     -0.74635595f,
    -0.39515480f,     -0.84893835f,     -0.90375549f,     0.73480082f,     -0.58767736f,     0.08342902f,
    0.62925541f,     0.72873598f,     -0.52352232f,     0.28083152f,     -0.19107467f,     -0.05634759f,
    -0.77847391f,     0.05827374f,     -0.27424741f,     0.79540992f,     -0.13724241f,     -0.84656513f,
    0.39004120f,     -0.30552834f,     0.77140927f,     -0.06307057f,     0.62708396f,     0.67427456f,
    -0.92192185f,     0.23879647f,     -0.14415555f,     -0.51336807f,     0.20831463f,     -0.54697466f,
    0.39722830f,     -0.11991230f,     -0.09797478f,     0.03019991f,     -0.60746574f,     -0.60253602f,
    -0.57869947f,     -0.05742344f,     0.20526561f,     -0.49169743f,     -0.81202149f,     -0.44775245f,
    -0.40678006f,     0.49745050f,     -0.59019566f,     -0.56885135f,     0.46765602f,     0.44123074f,
    0.14051415f,     -0.88006783f,     0.68182743f,     -1.18641758f,     -0.00044203f,     -0.13104899f,
    -0.64890391f,     -0.04277598f,     -0.48420039f,     0.64175624f,     0.58568335f,     0.23919713f

};
